digraph Tree {
node [shape=box, style="filled, rounded", color="black", fontname=helvetica] ;
edge [fontname=helvetica] ;
0 [label="covid_symptoms <= 0.5\nmse = 8.56\nsamples = 146477\nvalue = 4.05", fillcolor="#f4ccaf"] ;
1 [label="staying_home <= 0.5\nmse = 8.49\nsamples = 139526\nvalue = 4.0", fillcolor="#f5cdb0"] ;
0 -> 1 [labeldistance=2.5, labelangle=45, headlabel="True"] ;
2 [label="key_worker <= 0.5\nmse = 9.12\nsamples = 21178\nvalue = 4.24", fillcolor="#f4caab"] ;
1 -> 2 ;
3 [label="dateofbirth_year <= 1990.5\nmse = 9.21\nsamples = 5663\nvalue = 4.38", fillcolor="#f4c8a8"] ;
2 -> 3 ;
4 [label="(...)", fillcolor="#C0C0C0"] ;
3 -> 4 ;
237 [label="(...)", fillcolor="#C0C0C0"] ;
3 -> 237 ;
308 [label="sex <= 0.5\nmse = 9.08\nsamples = 15515\nvalue = 4.19", fillcolor="#f4caac"] ;
2 -> 308 ;
309 [label="(...)", fillcolor="#C0C0C0"] ;
308 -> 309 ;
476 [label="(...)", fillcolor="#C0C0C0"] ;
308 -> 476 ;
641 [label="dateofbirth_year <= 1922.5\nmse = 8.37\nsamples = 118348\nvalue = 3.96", fillcolor="#f5cdb1"] ;
1 -> 641 ;
642 [label="mse = 0.0\nsamples = 1\nvalue = 10.0", fillcolor="#e58139"] ;
641 -> 642 ;
643 [label="dateofbirth_year <= 1935.5\nmse = 8.37\nsamples = 118347\nvalue = 3.96", fillcolor="#f5cdb1"] ;
641 -> 643 ;
644 [label="(...)", fillcolor="#C0C0C0"] ;
643 -> 644 ;
681 [label="(...)", fillcolor="#C0C0C0"] ;
643 -> 681 ;
1018 [label="dateofbirth_year <= 1933.5\nmse = 8.74\nsamples = 6951\nvalue = 5.09", fillcolor="#f2bf9a"] ;
0 -> 1018 [labeldistance=2.5, labelangle=-45, headlabel="False"] ;
1019 [label="dateofbirth_year <= 1932.5\nmse = 7.06\nsamples = 14\nvalue = 2.71", fillcolor="#f8ddc9"] ;
1018 -> 1019 ;
1020 [label="staying_home <= 0.5\nmse = 5.76\nsamples = 10\nvalue = 3.8", fillcolor="#f5cfb4"] ;
1019 -> 1020 ;
1021 [label="(...)", fillcolor="#C0C0C0"] ;
1020 -> 1021 ;
1026 [label="(...)", fillcolor="#C0C0C0"] ;
1020 -> 1026 ;
1033 [label="mse = 0.0\nsamples = 4\nvalue = 0.0", fillcolor="#ffffff"] ;
1019 -> 1033 ;
1034 [label="dateofbirth_year <= 1977.5\nmse = 8.73\nsamples = 6937\nvalue = 5.1", fillcolor="#f2bf9a"] ;
1018 -> 1034 ;
1035 [label="dateofbirth_year <= 1974.5\nmse = 8.78\nsamples = 4927\nvalue = 5.17", fillcolor="#f2be99"] ;
1034 -> 1035 ;
1036 [label="(...)", fillcolor="#C0C0C0"] ;
1035 -> 1036 ;
1429 [label="(...)", fillcolor="#C0C0C0"] ;
1035 -> 1429 ;
1462 [label="dateofbirth_year <= 2013.5\nmse = 8.56\nsamples = 2010\nvalue = 4.93", fillcolor="#f2c19d"] ;
1034 -> 1462 ;
1463 [label="(...)", fillcolor="#C0C0C0"] ;
1462 -> 1463 ;
1722 [label="(...)", fillcolor="#C0C0C0"] ;
1462 -> 1722 ;
}